digraph Tree {
node [shape=box] ;
0 [label="big apple <= 0.5\nentropy = 1.0\nsamples = 4\nvalue = [2, 2]"] ;
1 [label="entropy = 0.0\nsamples = 2\nvalue = [2, 0]"] ;
0 -> 1 [labeldistance=2.5, labelangle=45, headlabel="True"] ;
2 [label="entropy = 0.0\nsamples = 2\nvalue = [0, 2]"] ;
0 -> 2 [labeldistance=2.5, labelangle=-45, headlabel="False"] ;
}